<?xml version="1.0"?>
<opencv_storage>
<stage3>
  <maxWeakCount>100</maxWeakCount>
  <stageThreshold>-7.7860492467880249e-01</stageThreshold>
  <weakClassifiers>
    <_>
      <internalNodes>
        0 -1 95871 -8.2561939954757690e-02</internalNodes>
      <leafValues>
        8.1818181276321411e-01 2.4818578362464905e-01</leafValues></_>
    <_>
      <internalNodes>
        0 -1 63143 7.3438569903373718e-02</internalNodes>
      <leafValues>
        -7.0003122091293335e-02 4.9545761942863464e-01</leafValues></_>
    <_>
      <internalNodes>
        0 -1 64365 -9.3262396752834320e-02</internalNodes>
      <leafValues>
        7.7419245243072510e-01 -4.0220167487859726e-02</leafValues></_>
    <_>
      <internalNodes>
        0 -1 141289 -5.5980063974857330e-02</internalNodes>
      <leafValues>
        6.8751853704452515e-01 -5.4528772830963135e-02</leafValues></_>
    <_>
      <internalNodes>
        0 -1 6956 2.4659490585327148e-01</internalNodes>
      <leafValues>
        -9.0886302292346954e-02 3.6808851361274719e-01</leafValues></_>
    <_>
      <internalNodes>
        0 -1 129179 -3.5429899580776691e-03</internalNodes>
      <leafValues>
        -1.3143520057201385e-01 1.5167914330959320e-01</leafValues></_>
    <_>
      <internalNodes>
        0 -1 80273 5.3298659622669220e-03</internalNodes>
      <leafValues>
        6.2002692371606827e-02 -2.9702049493789673e-01</leafValues></_>
    <_>
      <internalNodes>
        0 -1 99285 1.2373535335063934e-01</internalNodes>
      <leafValues>
        -3.7984602153301239e-02 5.5255013704299927e-01</leafValues></_>
    <_>
      <internalNodes>
        0 -1 133870 1.1852386593818665e-01</internalNodes>
      <leafValues>
        -2.5646200403571129e-02 5.6771385669708252e-01</leafValues></_>
    <_>
      <internalNodes>
        0 -1 137195 8.0821197479963303e-04</internalNodes>
      <leafValues>
        1.0180030763149261e-01 -1.8481490015983582e-01</leafValues></_>
    <_>
      <internalNodes>
        0 -1 146017 2.2785728797316551e-03</internalNodes>
      <leafValues>
        4.8061028122901917e-02 -3.0227422714233398e-01</leafValues></_>
    <_>
      <internalNodes>
        0 -1 121832 -2.6661893352866173e-02</internalNodes>
      <leafValues>
        3.0688071250915527e-01 -5.3803686052560806e-02</leafValues></_>
    <_>
      <internalNodes>
        0 -1 140968 -1.6683506965637207e-01</internalNodes>
      <leafValues>
        -8.3975630998611450e-01 2.0059838891029358e-02</leafValues></_>
    <_>
      <internalNodes>
        0 -1 136711 5.2575254812836647e-04</internalNodes>
      <leafValues>
        1.3301673531532288e-01 -1.2254246324300766e-01</leafValues></_>
    <_>
      <internalNodes>
        0 -1 102267 4.6433729585260153e-04</internalNodes>
      <leafValues>
        -1.2411562353372574e-01 1.2965856492519379e-01</leafValues></_>
    <_>
      <internalNodes>
        0 -1 160086 1.4588618651032448e-02</internalNodes>
      <leafValues>
        -9.2186771333217621e-02 1.7229239642620087e-01</leafValues></_>
    <_>
      <internalNodes>
        0 -1 145548 1.5088610234670341e-04</internalNodes>
      <leafValues>
        9.4621248543262482e-02 -1.6679088771343231e-01</leafValues></_>
    <_>
      <internalNodes>
        0 -1 132214 3.9486348628997803e-02</internalNodes>
      <leafValues>
        2.5024630129337311e-02 -5.6201797723770142e-01</leafValues></_>
    <_>
      <internalNodes>
        0 -1 124966 -3.1459689140319824e-02</internalNodes>
      <leafValues>
        4.7379007935523987e-01 -2.9787924140691757e-02</leafValues></_>
    <_>
      <internalNodes>
        0 -1 60972 -2.1628506481647491e-02</internalNodes>
      <leafValues>
        1.8082672357559204e-01 -8.5413612425327301e-02</leafValues></_>
    <_>
      <internalNodes>
        0 -1 107262 -4.3451329693198204e-03</internalNodes>
      <leafValues>
        -3.0506703257560730e-01 5.6131586432456970e-02</leafValues></_>
    <_>
      <internalNodes>
        0 -1 75449 1.4890347607433796e-02</internalNodes>
      <leafValues>
        3.8143005222082138e-02 -4.1068542003631592e-01</leafValues></_>
    <_>
      <internalNodes>
        0 -1 6592 -1.0385307483375072e-02</internalNodes>
      <leafValues>
        5.9940701723098755e-01 -2.3524146527051926e-02</leafValues></_>
    <_>
      <internalNodes>
        0 -1 170158 -1.7949908971786499e-02</internalNodes>
      <leafValues>
        8.0946922302246094e-01 -1.6435937955975533e-02</leafValues></_>
    <_>
      <internalNodes>
        0 -1 136960 -4.8605715855956078e-03</internalNodes>
      <leafValues>
        -1.8597987294197083e-01 7.8739568591117859e-02</leafValues></_>
    <_>
      <internalNodes>
        0 -1 117634 -7.5573042035102844e-02</internalNodes>
      <leafValues>
        7.7722364664077759e-01 -1.8831435590982437e-02</leafValues></_>
    <_>
      <internalNodes>
        0 -1 131018 -1.9305050373077393e-01</internalNodes>
      <leafValues>
        9.2872327566146851e-01 -9.2635750770568848e-03</leafValues></_>
    <_>
      <internalNodes>
        0 -1 4233 2.7890366315841675e-01</internalNodes>
      <leafValues>
        -1.4600629918277264e-02 8.0797570943832397e-01</leafValues></_>
    <_>
      <internalNodes>
        0 -1 35720 3.1734529137611389e-01</internalNodes>
      <leafValues>
        -1.7612891271710396e-02 6.6196751594543457e-01</leafValues></_>
    <_>
      <internalNodes>
        0 -1 133908 1.3180074095726013e-01</internalNodes>
      <leafValues>
        2.6049572974443436e-02 -5.9541243314743042e-01</leafValues></_>
    <_>
      <internalNodes>
        0 -1 179328 -5.0404341891407967e-03</internalNodes>
      <leafValues>
        3.2193478941917419e-01 -4.0257349610328674e-02</leafValues></_>
    <_>
      <internalNodes>
        0 -1 176475 -1.2038468383252621e-02</internalNodes>
      <leafValues>
        -5.4392921924591064e-01 2.5513904169201851e-02</leafValues></_>
    <_>
      <internalNodes>
        0 -1 82794 1.3563475571572781e-02</internalNodes>
      <leafValues>
        1.8669951707124710e-02 -6.3327109813690186e-01</leafValues></_>
    <_>
      <internalNodes>
        0 -1 149056 -3.0970070511102676e-02</internalNodes>
      <leafValues>
        -4.0865534543991089e-01 3.1725093722343445e-02</leafValues></_>
    <_>
      <internalNodes>
        0 -1 189695 9.7073818324133754e-05</internalNodes>
      <leafValues>
        1.0561272501945496e-01 -1.3694322109222412e-01</leafValues></_>
    <_>
      <internalNodes>
        0 -1 26308 -2.8429979458451271e-02</internalNodes>
      <leafValues>
        6.6258871555328369e-01 -1.9876953214406967e-02</leafValues></_>
    <_>
      <internalNodes>
        0 -1 151873 -5.3573446348309517e-04</internalNodes>
      <leafValues>
        -1.6746306419372559e-01 7.9854562878608704e-02</leafValues></_>
    <_>
      <internalNodes>
        0 -1 139392 1.7720505129545927e-03</internalNodes>
      <leafValues>
        -6.1312582343816757e-02 2.0580813288688660e-01</leafValues></_>
    <_>
      <internalNodes>
        0 -1 119145 -7.2598608676344156e-04</internalNodes>
      <leafValues>
        -1.5183669328689575e-01 8.1516779959201813e-02</leafValues></_>
    <_>
      <internalNodes>
        0 -1 14556 2.9465432744473219e-03</internalNodes>
      <leafValues>
        -2.8943702578544617e-02 4.3451941013336182e-01</leafValues></_>
    <_>
      <internalNodes>
        0 -1 111669 9.2827680055052042e-04</internalNodes>
      <leafValues>
        9.4572864472866058e-02 -1.2808707356452942e-01</leafValues></_>
    <_>
      <internalNodes>
        0 -1 111326 1.9909881055355072e-02</internalNodes>
      <leafValues>
        -4.3037120252847672e-02 3.0201572179794312e-01</leafValues></_>
    <_>
      <internalNodes>
        0 -1 101575 1.2032615486532450e-03</internalNodes>
      <leafValues>
        8.5980527102947235e-02 -1.4347398281097412e-01</leafValues></_>
    <_>
      <internalNodes>
        0 -1 117334 1.6510935500264168e-02</internalNodes>
      <leafValues>
        -2.5805423036217690e-02 5.3219926357269287e-01</leafValues></_>
    <_>
      <internalNodes>
        0 -1 493 2.4397247470915318e-03</internalNodes>
      <leafValues>
        5.2503198385238647e-02 -2.6137882471084595e-01</leafValues></_>
    <_>
      <internalNodes>
        0 -1 14772 8.2012166967615485e-04</internalNodes>
      <leafValues>
        -2.7734598144888878e-02 4.9171978235244751e-01</leafValues></_>
    <_>
      <internalNodes>
        0 -1 111559 4.7185516450554132e-04</internalNodes>
      <leafValues>
        7.6946556568145752e-02 -1.6326881945133209e-01</leafValues></_>
    <_>
      <internalNodes>
        0 -1 98144 3.0210861004889011e-03</internalNodes>
      <leafValues>
        -7.0030733942985535e-02 1.8535432219505310e-01</leafValues></_>
    <_>
      <internalNodes>
        0 -1 159272 2.9329480603337288e-03</internalNodes>
      <leafValues>
        -3.4469746053218842e-02 3.5143369436264038e-01</leafValues></_>
    <_>
      <internalNodes>
        0 -1 105280 3.8985926657915115e-02</internalNodes>
      <leafValues>
        -8.9113377034664154e-03 1.</leafValues></_>
    <_>
      <internalNodes>
        0 -1 146254 -5.9371092356741428e-04</internalNodes>
      <leafValues>
        -2.2485265135765076e-01 5.7113677263259888e-02</leafValues></_>
    <_>
      <internalNodes>
        0 -1 110586 -1.6625642310827971e-03</internalNodes>
      <leafValues>
        -1.5258595347404480e-01 8.6977876722812653e-02</leafValues></_>
    <_>
      <internalNodes>
        0 -1 187161 -1.5221035573631525e-03</internalNodes>
      <leafValues>
        2.5343090295791626e-01 -5.0231743603944778e-02</leafValues></_>
    <_>
      <internalNodes>
        0 -1 137721 5.0289812497794628e-03</internalNodes>
      <leafValues>
        -4.2592268437147141e-02 2.8842091560363770e-01</leafValues></_>
    <_>
      <internalNodes>
        0 -1 13553 3.4194756299257278e-02</internalNodes>
      <leafValues>
        2.7410941198468208e-02 -5.3144013881683350e-01</leafValues></_>
    <_>
      <internalNodes>
        0 -1 162261 1.5213238075375557e-03</internalNodes>
      <leafValues>
        4.5863561332225800e-02 -2.5084283947944641e-01</leafValues></_>
    <_>
      <internalNodes>
        0 -1 83225 -9.5073124393820763e-03</internalNodes>
      <leafValues>
        1.8894495069980621e-01 -6.7709796130657196e-02</leafValues></_>
    <_>
      <internalNodes>
        0 -1 56540 -1.4011752605438232e-01</internalNodes>
      <leafValues>
        -4.6652978658676147e-01 3.3857908099889755e-02</leafValues></_>
    <_>
      <internalNodes>
        0 -1 92434 1.6500145196914673e-02</internalNodes>
      <leafValues>
        3.3669415861368179e-02 -4.0139991044998169e-01</leafValues></_>
    <_>
      <internalNodes>
        0 -1 157545 1.0956609621644020e-02</internalNodes>
      <leafValues>
        -3.6108117550611496e-02 3.8409599661827087e-01</leafValues></_>
    <_>
      <internalNodes>
        0 -1 98874 1.5375472139567137e-03</internalNodes>
      <leafValues>
        -3.4571278840303421e-02 3.5232540965080261e-01</leafValues></_>
    <_>
      <internalNodes>
        0 -1 76947 3.0506243929266930e-03</internalNodes>
      <leafValues>
        9.1337777674198151e-02 -1.4312472939491272e-01</leafValues></_>
    <_>
      <internalNodes>
        0 -1 157831 -4.5078975381329656e-04</internalNodes>
      <leafValues>
        9.2378847301006317e-02 -1.4081428945064545e-01</leafValues></_>
    <_>
      <internalNodes>
        0 -1 27392 8.7513979524374008e-03</internalNodes>
      <leafValues>
        -1.6291536390781403e-02 7.2813266515731812e-01</leafValues></_>
    <_>
      <internalNodes>
        0 -1 88849 1.9990401342511177e-03</internalNodes>
      <leafValues>
        -5.7975817471742630e-02 1.9674615561962128e-01</leafValues></_>
    <_>
      <internalNodes>
        0 -1 14392 5.8773402997758240e-05</internalNodes>
      <leafValues>
        1.0224971920251846e-01 -1.3378189504146576e-01</leafValues></_>
    <_>
      <internalNodes>
        0 -1 118156 4.6463504433631897e-02</internalNodes>
      <leafValues>
        -5.0560969859361649e-02 2.7655825018882751e-01</leafValues></_>
    <_>
      <internalNodes>
        0 -1 134358 3.7447690963745117e-02</internalNodes>
      <leafValues>
        -7.6294533908367157e-02 1.9013381004333496e-01</leafValues></_>
    <_>
      <internalNodes>
        0 -1 7617 -3.0498255044221878e-02</internalNodes>
      <leafValues>
        2.8539267182350159e-01 -5.0881706178188324e-02</leafValues></_>
    <_>
      <internalNodes>
        0 -1 169509 -2.6993508799932897e-04</internalNodes>
      <leafValues>
        1.3620513677597046e-01 -1.0757022351026535e-01</leafValues></_>
    <_>
      <internalNodes>
        0 -1 36523 1.2962867913302034e-04</internalNodes>
      <leafValues>
        1.4089280366897583e-01 -1.0436468571424484e-01</leafValues></_>
    <_>
      <internalNodes>
        0 -1 159125 8.0322585999965668e-03</internalNodes>
      <leafValues>
        -1.9605450332164764e-02 6.1135566234588623e-01</leafValues></_>
    <_>
      <internalNodes>
        0 -1 84078 4.1370827704668045e-02</internalNodes>
      <leafValues>
        -4.6243607997894287e-02 2.5625419616699219e-01</leafValues></_>
    <_>
      <internalNodes>
        0 -1 190379 -3.2789973192848265e-04</internalNodes>
      <leafValues>
        -2.2078529000282288e-01 6.3799135386943817e-02</leafValues></_>
    <_>
      <internalNodes>
        0 -1 105910 -4.0704541606828570e-04</internalNodes>
      <leafValues>
        1.2716321647167206e-01 -1.0038807243108749e-01</leafValues></_>
    <_>
      <internalNodes>
        0 -1 123911 2.6898453012108803e-02</internalNodes>
      <leafValues>
        3.0638244003057480e-02 -4.6939554810523987e-01</leafValues></_>
    <_>
      <internalNodes>
        0 -1 93701 -6.4180875197052956e-03</internalNodes>
      <leafValues>
        2.3977507650852203e-01 -5.7416692376136780e-02</leafValues></_>
    <_>
      <internalNodes>
        0 -1 134142 4.3757548555731773e-03</internalNodes>
      <leafValues>
        7.8462719917297363e-02 -1.7489022016525269e-01</leafValues></_>
    <_>
      <internalNodes>
        0 -1 122361 2.9719057679176331e-01</internalNodes>
      <leafValues>
        -1.1446950957179070e-02 9.6686214208602905e-01</leafValues></_>
    <_>
      <internalNodes>
        0 -1 24597 1.3937443145550787e-04</internalNodes>
      <leafValues>
        1.2885642051696777e-01 -9.9170833826065063e-02</leafValues></_>
    <_>
      <internalNodes>
        0 -1 183687 -1.0721490252763033e-03</internalNodes>
      <leafValues>
        -2.6538252830505371e-01 4.8190593719482422e-02</leafValues></_>
    <_>
      <internalNodes>
        0 -1 27785 4.3912865221500397e-03</internalNodes>
      <leafValues>
        -1.9724123179912567e-02 5.7266819477081299e-01</leafValues></_>
    <_>
      <internalNodes>
        0 -1 96970 -9.2120788991451263e-02</internalNodes>
      <leafValues>
        -6.5463542938232422e-01 2.0867299288511276e-02</leafValues></_>
    <_>
      <internalNodes>
        0 -1 89466 -4.1548449546098709e-02</internalNodes>
      <leafValues>
        8.8233900070190430e-01 -1.6672404482960701e-02</leafValues></_>
    <_>
      <internalNodes>
        0 -1 166523 -2.6876717805862427e-02</internalNodes>
      <leafValues>
        -5.7365018129348755e-01 2.6205467060208321e-02</leafValues></_>
    <_>
      <internalNodes>
        0 -1 159733 1.0384668130427599e-03</internalNodes>
      <leafValues>
        -9.7143657505512238e-02 1.4449152350425720e-01</leafValues></_>
    <_>
      <internalNodes>
        0 -1 10156 -7.4493975262157619e-05</internalNodes>
      <leafValues>
        -1.4196704328060150e-01 8.7402254343032837e-02</leafValues></_>
    <_>
      <internalNodes>
        0 -1 111670 -5.1320730708539486e-03</internalNodes>
      <leafValues>
        -2.4512849748134613e-01 4.9434628337621689e-02</leafValues></_>
    <_>
      <internalNodes>
        0 -1 159413 4.0595391765236855e-03</internalNodes>
      <leafValues>
        2.5804948061704636e-02 -4.7701525688171387e-01</leafValues></_>
    <_>
      <internalNodes>
        0 -1 19036 2.4639868643134832e-03</internalNodes>
      <leafValues>
        -3.6372292786836624e-02 3.3841118216514587e-01</leafValues></_>
    <_>
      <internalNodes>
        0 -1 100545 3.3273648004978895e-03</internalNodes>
      <leafValues>
        -1.9295288249850273e-02 6.3830089569091797e-01</leafValues></_>
    <_>
      <internalNodes>
        0 -1 76572 -2.5506645441055298e-02</internalNodes>
      <leafValues>
        -6.2973171472549438e-01 2.3650726303458214e-02</leafValues></_>
    <_>
      <internalNodes>
        0 -1 153643 -1.9840040476992726e-04</internalNodes>
      <leafValues>
        -1.3086943328380585e-01 8.6047701537609100e-02</leafValues></_>
    <_>
      <internalNodes>
        0 -1 53 4.8162743449211121e-02</internalNodes>
      <leafValues>
        1.6736101359128952e-02 -7.2208827733993530e-01</leafValues></_>
    <_>
      <internalNodes>
        0 -1 119524 -2.7190516702830791e-03</internalNodes>
      <leafValues>
        -1.9871309399604797e-01 5.6240722537040710e-02</leafValues></_>
    <_>
      <internalNodes>
        0 -1 148591 6.9481760263442993e-02</internalNodes>
      <leafValues>
        -1.1830856092274189e-02 9.3794995546340942e-01</leafValues></_>
    <_>
      <internalNodes>
        0 -1 157804 -4.3658814392983913e-03</internalNodes>
      <leafValues>
        5.0987577438354492e-01 -2.1043004468083382e-02</leafValues></_>
    <_>
      <internalNodes>
        0 -1 114161 8.5157677531242371e-02</internalNodes>
      <leafValues>
        -3.0825896188616753e-02 3.7864637374877930e-01</leafValues></_>
    <_>
      <internalNodes>
        0 -1 116918 4.0887943468987942e-03</internalNodes>
      <leafValues>
        -1.1899891495704651e-01 1.2085995078086853e-01</leafValues></_>
    <_>
      <internalNodes>
        0 -1 82895 -9.6600940451025963e-03</internalNodes>
      <leafValues>
        1.5927387773990631e-01 -8.8436037302017212e-02</leafValues></_></weakClassifiers></stage3>
</opencv_storage>
